digraph Tree {
node [shape=box, style="filled, rounded", color="black", fontname="helvetica"] ;
edge [fontname="helvetica"] ;
0 [label="surface-pied-sur-anneau_soyeuse <= 0.5\ngini = 0.499\nsamples = 5686\nvalue = [2945, 2741]\nclass = comestible", fillcolor="#fdf6f1"] ;
1 [label="taille-lamelles_étroit <= 0.5\ngini = 0.413\nsamples = 4006\nvalue = [2840, 1166]\nclass = comestible", fillcolor="#f0b58a"] ;
0 -> 1 [labeldistance=2.5, labelangle=45, headlabel="True"] ;
2 [label="gini = 0.156\nsamples = 2884\nvalue = [2638, 246]\nclass = comestible", fillcolor="#e78d4b"] ;
1 -> 2 ;
3 [label="gini = 0.295\nsamples = 1122\nvalue = [202, 920]\nclass = toxique", fillcolor="#64b3eb"] ;
1 -> 3 ;
4 [label="type-anneau_pendant <= 0.5\ngini = 0.117\nsamples = 1680\nvalue = [105, 1575]\nclass = toxique", fillcolor="#46a4e7"] ;
0 -> 4 [labeldistance=2.5, labelangle=-45, headlabel="False"] ;
5 [label="gini = 0.0\nsamples = 1575\nvalue = [0, 1575]\nclass = toxique", fillcolor="#399de5"] ;
4 -> 5 ;
6 [label="gini = 0.0\nsamples = 105\nvalue = [105, 0]\nclass = comestible", fillcolor="#e58139"] ;
4 -> 6 ;
}