digraph Tree {
node [shape=box, style="filled, rounded", color="black", fontname="helvetica"] ;
edge [fontname="helvetica"] ;
0 [label="taille-lamelles_étroit <= 0.5\ngini = 0.499\nsamples = 3567\nvalue = [2961.0, 2725.0]\nclass = comestible", fillcolor="#fdf5ef"] ;
1 [label="forme-pied_effilé <= 0.5\ngini = 0.416\nsamples = 2451\nvalue = [2772, 1163]\nclass = comestible", fillcolor="#f0b68c"] ;
0 -> 1 [labeldistance=2.5, labelangle=45, headlabel="True"] ;
2 [label="population_nombreuse <= 0.5\ngini = 0.5\nsamples = 1242\nvalue = [1002.0, 974.0]\nclass = comestible", fillcolor="#fefbf9"] ;
1 -> 2 ;
3 [label="type-anneau_large <= 0.5\ngini = 0.492\nsamples = 1074\nvalue = [759, 974]\nclass = toxique", fillcolor="#d3e9f9"] ;
2 -> 3 ;
4 [label="surface-pied-sur-anneau_lisse <= 0.5\ngini = 0.151\nsamples = 508\nvalue = [759, 68]\nclass = comestible", fillcolor="#e78c4b"] ;
3 -> 4 ;
5 [label="type-anneau_pendant <= 0.5\ngini = 0.335\nsamples = 64\nvalue = [89, 24]\nclass = comestible", fillcolor="#eca36e"] ;
4 -> 5 ;
6 [label="gini = 0.0\nsamples = 15\nvalue = [0, 24]\nclass = toxique", fillcolor="#399de5"] ;
5 -> 6 ;
7 [label="gini = 0.0\nsamples = 49\nvalue = [89, 0]\nclass = comestible", fillcolor="#e58139"] ;
5 -> 7 ;
8 [label="ecchymoses_non <= 0.5\ngini = 0.116\nsamples = 444\nvalue = [670, 44]\nclass = comestible", fillcolor="#e78946"] ;
4 -> 8 ;
9 [label="gini = 0.152\nsamples = 328\nvalue = [488, 44]\nclass = comestible", fillcolor="#e78c4b"] ;
8 -> 9 ;
10 [label="gini = 0.0\nsamples = 116\nvalue = [182, 0]\nclass = comestible", fillcolor="#e58139"] ;
8 -> 10 ;
11 [label="gini = 0.0\nsamples = 566\nvalue = [0, 906]\nclass = toxique", fillcolor="#399de5"] ;
3 -> 11 ;
12 [label="gini = 0.0\nsamples = 168\nvalue = [243, 0]\nclass = comestible", fillcolor="#e58139"] ;
2 -> 12 ;
13 [label="surface-chapeau_lisse <= 0.5\ngini = 0.174\nsamples = 1209\nvalue = [1770, 189]\nclass = comestible", fillcolor="#e88e4e"] ;
1 -> 13 ;
14 [label="gini = 0.0\nsamples = 911\nvalue = [1464, 0]\nclass = comestible", fillcolor="#e58139"] ;
13 -> 14 ;
15 [label="type-anneau_pendant <= 0.5\ngini = 0.472\nsamples = 298\nvalue = [306, 189]\nclass = comestible", fillcolor="#f5cfb3"] ;
13 -> 15 ;
16 [label="gini = 0.0\nsamples = 187\nvalue = [306, 0]\nclass = comestible", fillcolor="#e58139"] ;
15 -> 16 ;
17 [label="gini = 0.0\nsamples = 111\nvalue = [0, 189]\nclass = toxique", fillcolor="#399de5"] ;
15 -> 17 ;
18 [label="surface-pied-sur-anneau_fibreuse <= 0.5\ngini = 0.193\nsamples = 1116\nvalue = [189, 1562]\nclass = toxique", fillcolor="#51a9e8"] ;
0 -> 18 [labeldistance=2.5, labelangle=-45, headlabel="False"] ;
19 [label="surface-pied-sur-anneau_soyeuse <= 0.5\ngini = 0.174\nsamples = 1102\nvalue = [166, 1562]\nclass = toxique", fillcolor="#4ea7e8"] ;
18 -> 19 ;
20 [label="forme-pied_élargissant <= 0.5\ngini = 0.262\nsamples = 683\nvalue = [166, 905]\nclass = toxique", fillcolor="#5dafea"] ;
19 -> 20 ;
21 [label="type-anneau_évasé <= 0.5\ngini = 0.154\nsamples = 398\nvalue = [53, 579]\nclass = toxique", fillcolor="#4ba6e7"] ;
20 -> 21 ;
22 [label="gini = 0.0\nsamples = 36\nvalue = [53, 0]\nclass = comestible", fillcolor="#e58139"] ;
21 -> 22 ;
23 [label="gini = 0.0\nsamples = 362\nvalue = [0, 579]\nclass = toxique", fillcolor="#399de5"] ;
21 -> 23 ;
24 [label="surface-chapeau_lisse <= 0.5\ngini = 0.382\nsamples = 285\nvalue = [113.0, 326.0]\nclass = toxique", fillcolor="#7ebfee"] ;
20 -> 24 ;
25 [label="ecchymoses_oui <= 0.5\ngini = 0.483\nsamples = 176\nvalue = [113, 164]\nclass = toxique", fillcolor="#c1e1f7"] ;
24 -> 25 ;
26 [label="gini = 0.481\nsamples = 120\nvalue = [113, 76]\nclass = comestible", fillcolor="#f6d6be"] ;
25 -> 26 ;
27 [label="gini = 0.0\nsamples = 56\nvalue = [0, 88]\nclass = toxique", fillcolor="#399de5"] ;
25 -> 27 ;
28 [label="gini = 0.0\nsamples = 109\nvalue = [0, 162]\nclass = toxique", fillcolor="#399de5"] ;
24 -> 28 ;
29 [label="gini = 0.0\nsamples = 419\nvalue = [0, 657]\nclass = toxique", fillcolor="#399de5"] ;
19 -> 29 ;
30 [label="gini = 0.0\nsamples = 14\nvalue = [23, 0]\nclass = comestible", fillcolor="#e58139"] ;
18 -> 30 ;
}